tree
version=v4
num_class=1
num_tree_per_iteration=1
label_index=0
max_feature_idx=25
objective=lambdarank
feature_names=course_type_enc direction_enc distance track_condition_enc weather_enc venue_code_enc race_grade field_size gate horse_num weight_carried age horse_win_rate_all horse_top3_rate_all horse_top3_rate_3 horse_last_finish horse_days_since_last horse_avg_last3f_3 horse_career_races horse_running_style horse_weight weight_diff jockey_win_rate_30d jockey_top3_rate_30d jockey_win_rate_course jockey_recent_rides
feature_infos=[0:1] [-1:1] [1000:4250] [-1:3] [-1:3] [1:10] [1:5] [5:18] [1:8] [1:18] [48:65] [2:12] none none none none none none none none none none [0:1] [0:1] [0:1] [0:833]
tree_sizes=13963

Tree=0
num_leaves=127
num_cat=0
split_feature=24 24 24 24 23 23 23 11 25 24 2 23 23 24 23 11 11 11 11 25 24 24 2 23 11 23 10 9 2 23 2 7 6 22 23 25 10 23 2 10 24 24 11 11 6 10 11 25 11 2 8 23 23 11 11 24 9 10 10 2 23 24 10 24 25 25 24 3 10 23 2 23 24 10 22 11 25 22 9 22 22 7 25 10 24 11 9 24 11 22 7 23 2 9 23 9 11 22 25 2 23 11 10 23 24 24 25 22 2 3 2 24 11 2 7 24 25 11 25 6 11 11 6 2 8 22
split_gain=4448.07 859.957 349.958 193.068 169.304 122 95.5028 74.892 55.9487 48.1522 47.7337 46.5916 38.764 32.3951 30.5436 27.8951 27.3885 25.2998 23.0546 23.0537 22.0168 20.3648 17.445 16.3913 16.2103 20.4011 15.6718 15.0204 19.1347 14.7819 14.4718 17.3598 14.2684 14.1377 14.0961 14.5002 26.9661 13.6861 13.1677 13.0943 30.6931 28.9222 15.8503 13.0296 12.7161 12.4688 13.2297 12.0272 11.8655 11.8655 11.8595 11.7272 11.6164 11.7915 11.219 10.9611 15.42 10.9105 10.7235 15.6844 10.5848 11.2469 10.5293 10.5064 10.1553 10.1761 15.8088 10.3091 9.8789 9.78987 10.9352 10.3856 9.71605 9.37976 16.2476 9.25424 11.9853 10.2691 10.8819 9.1268 13.1892 9.93426 9.12061 9.10532 9.00197 8.86587 8.82731 8.8065 8.68475 8.64054 8.63076 8.49979 9.36385 9.0795 8.44146 10.2831 8.30381 8.25694 8.21291 9.35407 8.8463 8.10259 17.071 8.00274 7.9961 7.97028 11.7039 9.03404 10.2669 7.92448 7.85443 7.76356 7.70636 7.68091 7.67701 12.5557 7.60928 7.58832 11.4375 7.52223 9.38346 7.49815 7.47266 7.41091 8.26002 7.50245
threshold=0.071449323483024837 0.13645819464784983 0.046882476076555032 0.22237871674491397 0.25782013685239497 0.11981595092024541 0.21231060606060609 4.5000000000000009 43.500000000000007 0.09732184025820996 1250.0000000000002 0.18942218080149117 0.10275263951734541 0.033790500241792497 0.2038926681783825 4.5000000000000009 3.5000000000000004 2.5000000000000004 5.5000000000000009 59.500000000000007 0.10744833262208134 0.044201198973361784 1250.0000000000002 0.37194394752534293 5.5000000000000009 0.27223320158102771 59.250000000000007 13.500000000000002 1175.0000000000002 0.056079664570230614 1075.0000000000002 14.500000000000002 1.5000000000000002 0.065395580898075567 0.28317610062893089 15.500000000000002 59.250000000000007 0.38507877664504181 1350.0000000000002 54.250000000000007 0.046882476076555032 0.047395567222819297 4.5000000000000009 2.5000000000000004 3.5000000000000004 56.750000000000007 2.5000000000000004 22.500000000000004 3.5000000000000004 2675.0000000000005 5.5000000000000009 0.26120401337792648 0.31494165398274993 1.0000000180025095e-35 5.5000000000000009 0.079555729081045551 5.5000000000000009 57.250000000000007 54.250000000000007 2150.0000000000005 0.18708333333333335 0.030321418064136515 56.250000000000007 0.066689357839800331 26.500000000000004 40.500000000000007 0.019362649379051789 -1.0000000180025095e-35 58.750000000000007 0.23706512042818914 1450.0000000000002 0.26488306165839837 0.1333726879181425 58.750000000000007 0.16760299625468167 4.5000000000000009 9.5000000000000018 0.030536130536130541 17.500000000000004 0.041960093896713617 0.051188470896500103 12.500000000000002 69.500000000000014 60.250000000000007 0.058944213681055797 4.5000000000000009 4.5000000000000009 0.093669899825091441 1.0000000180025095e-35 0.052982456140350888 8.5000000000000018 0.17416582406471184 1850.0000000000002 2.5000000000000004 0.14196148678907303 13.500000000000002 4.5000000000000009 0.069204980842911892 21.500000000000004 1450.0000000000002 0.030776515151515155 5.5000000000000009 58.250000000000007 0.26120401337792648 0.042455465373669239 0.041682461460702556 41.500000000000007 0.048583792289535806 2050.0000000000005 1.0000000180025095e-35 1750.0000000000002 0.052180788888634234 5.5000000000000009 1850.0000000000002 15.500000000000002 0.023192141042880626 25.500000000000004 3.5000000000000004 67.500000000000014 1.5000000000000002 4.5000000000000009 2.5000000000000004 3.5000000000000004 1350.0000000000002 6.5000000000000009 0.060120481927710849
decision_type=10 10 8 10 10 8 10 10 2 10 2 8 8 10 10 10 10 10 10 2 10 10 2 10 10 10 2 2 2 10 2 2 2 10 10 2 2 8 2 2 10 10 8 10 2 2 10 2 8 2 2 8 8 10 10 10 2 2 2 2 8 10 2 10 2 2 10 2 2 10 2 10 8 2 8 8 2 10 2 10 10 2 2 2 10 10 2 10 10 10 2 10 2 2 10 2 10 8 2 2 10 10 2 10 10 10 2 10 2 2 2 10 8 2 2 10 2 8 2 2 10 8 2 2 2 10
left_child=2 4 5 16 7 13 10 11 14 55 27 44 19 17 21 45 32 29 34 26 79 30 47 75 38 -26 98 33 -29 -1 50 73 52 54 57 36 -36 -5 -10 41 43 -14 -42 -41 58 90 -47 -15 -37 88 60 -18 -3 62 -4 56 -6 63 87 -60 61 -7 82 123 68 66 67 -66 -19 -65 71 -71 -17 121 -75 76 -16 114 -79 -13 -81 -82 -54 101 110 89 -84 94 -31 105 -11 93 109 -40 -2 -96 -33 -23 99 112 -100 -44 -103 113 -94 -24 107 108 -107 -93 -21 -102 -12 -58 -77 -116 -52 -35 -119 120 -39 -32 -57 -8 125 -125
right_child=1 3 6 37 9 8 18 -9 24 15 12 20 39 22 23 72 51 64 -20 84 -22 97 85 -25 25 -27 -28 28 -30 49 31 96 -34 117 35 48 -38 119 91 40 42 -43 83 -45 -46 46 -48 -49 -50 -51 116 -53 53 -55 -56 122 103 -59 59 -61 -62 -63 -64 69 65 -67 -68 -69 -70 70 -72 -73 -74 74 -76 77 -78 78 -80 80 81 -83 86 -85 -86 -87 -88 -89 -90 -91 -92 92 104 -95 95 -97 -98 -99 100 -101 111 102 -104 -105 -106 106 -108 -109 -110 -111 -112 -113 -114 -115 115 -117 -118 118 -120 -121 -122 -123 -124 124 -126 -127
leaf_value=-0.05861019626915142 -0.035264247236905175 0.03161106184512965 -0.011949684608118925 0.038871527252249238 -0.0052355040141310333 -0.071856167547713026 0.0027725911136007812 -0.01965000656070957 -0.002022617068670607 0.012156654869622533 -0.0048061644389598528 0.014220099992315816 -0.041750278842888192 -0.035786154973722305 -0.044477761226883072 0.0066977178524371163 -0.0063594161284206627 -0.043858707552826823 -0.0342910248872614 -0.044378554883131222 0.022407033398862977 -0.0331512495090611 -0.028284820636961645 0.0069445446196456139 -0.067016084445676985 0.034541527664861273 -0.0016245684470901417 0.043733435838464965 -0.0013445609729367965 -0.042753921233654901 -0.057139661580314763 -0.028665876987301858 0.023070390243918035 0.020397656325924975 -0.039560601835190758 0.022481735892107876 0.016148735966544217 0.068368210869352991 -0.042881877835363576 0.021315396314605523 -0.0089646463784224823 -0.018016986680568725 -0.019667323250467252 -0.010447407464064249 -0.053117968520854819 0.015037204713773636 0.036229766842376047 -0.010777849211235327 0.004195471330538195 0.027825941998591071 0.015606741352793508 0.027433920560852573 0.04759296016542932 0.050851298353618193 -0.048553202622451448 0.019569388423712659 -0.075716272951260211 -0.027568819445137418 0.0063711970017197393 -0.023680686272371593 -0.058722454948348025 0.01704918507812659 0.030085148580051808 0.01919887673791365 0.026333904209788445 -0.042862215452061952 -0.039438492290505958 -0.015217122383024612 -0.0084024101859940248 -0.062916117207999042 0.0073276206704610998 0.0067150187861895611 -0.076118591268104288 0.01638694636664469 -0.071865580420559322 -0.027142767499460586 -0.005965255240955477 -0.034992789950654371 0.066043216952599113 -0.010819642594449605 -0.00077481858068463854 0.011944963104751929 0.015505250490829365 0.042691455612816384 0.020239387563809559 -0.060593681967592211 0.040626171956367842 0.0042317703382846938 -0.063937544215965911 -0.058870511951050614 0.03194972752094484 -0.022668185682602083 0.015421711112419781 -0.018217929653083307 -0.017712049941205465 0.028073446869331192 -0.0443139954857317 -0.010117628286715544 -0.071829096643618154 -0.058674143020034486 -0.046227301979087948 -0.052177430508400048 0.011060900932725324 0.016696573053952377 -0.018151605906402479 -0.061848045989182657 -0.023830435960449994 0.010109067412204353 -0.013392788379796678 -0.00061880392448401464 -0.0015584813671740436 -0.024945253258579297 -0.053968921554476745 0.029100716856012555 -0.059828399562662983 0.0026778733820444879 -0.040361960470616624 -0.0075548217076964437 0.051200301531344562 0.051498596207291684 0.0424496923315636 -0.03972247724495865 -0.0044907678631831071 0.0027770607726254602 -0.017880028076997425 -0.010818885149535093
leaf_weight=329.4629252627492 51.161186970770359 223.29689425975084 666.79749308153987 49.92478296905756 136.25436516478658 4.6601042300462749 206.27632003650069 254.22022004425526 232.51282350346446 58.233022890985012 17.748283926397562 633.59786110371351 157.11799113452435 74.438326857984066 23.444618456065655 114.36893335729837 28.220559153705835 300.70744457840919 52.563357498496771 18.146772690117359 436.31312789022923 53.052533138543367 315.82217928767204 58.474703323096037 26.465772293508053 5.9395488984882823 27.048175148665905 28.69208175688982 128.04481549933553 393.21059079095721 72.467584665864706 979.5341830290854 105.67449103295803 45.496549218893051 44.007247664034367 134.87623601779342 42.567592110484838 922.52896826341748 43.524102292954922 78.78655057027936 436.88468463718891 714.05427677556872 845.22667949274182 54.341828249394894 12.637097161263226 267.8645731844008 102.52329747751355 138.33408722653985 261.66027903929353 5.4445043839514247 35.30763541162014 257.21973364055157 446.64435049891472 433.38219440355897 21.630177095532417 767.7184946089983 4.5119372084736815 46.886954933404922 323.40014108270407 50.014391869306564 18.95644760876894 13.87648583576083 189.26363691687584 93.76470760628581 20.974859926849604 64.618197645992041 51.133860491216183 50.880262807011604 21.453710705041885 13.044297873973848 51.858429860323668 8.8042851872742158 3.5485291369259349 17.200588155537847 7.341985695064067 77.142941243946552 146.4962485358119 185.40922424942255 2.5813427530229083 99.129892122000456 209.20815889164805 568.91921450197697 47.735587354749441 5.5114409662783137 21.327394653111696 36.316297631710768 140.61185491830111 56.016764234751463 56.993909202516079 35.252229187637568 1479.8528097309172 127.82445798069239 55.327392678707838 279.98172600567341 66.006475575268269 14.896248951554297 94.628239631652832 150.12637755647302 15.380557253956793 101.38684554025531 65.902767222374678 48.863906946033239 13.449409846216438 269.15781635046005 25.894131354987621 85.792372819036245 57.891259085386992 5.3623324520885935 12.911544404923914 60.498817399144173 26.561148770153522 130.01325005665421 14.779796961694954 2.660121213644743 9.0043553225696069 67.415358863770962 7.2039051987230769 117.39942657202482 8.8000285960733873 86.198517695069313 38.010069262236357 524.52515051886439 33.302836466580629 189.65932768210769 160.72099355980754 216.90975879132748
leaf_count=4305 611 1683 6994 351 1377 72 1976 2771 2289 459 173 5563 1885 918 294 1042 281 3692 612 235 3601 626 3561 505 368 40 234 197 1287 4795 836 11696 865 360 528 1095 332 4545 528 635 4448 7649 9139 542 173 2332 726 1449 2470 38 283 2025 2858 2690 284 6389 69 532 2984 519 256 110 1456 787 159 814 638 522 203 192 473 88 55 134 91 828 1466 2194 11 1033 1856 5267 420 35 180 477 971 522 759 471 11202 1433 449 3019 711 113 1230 1547 220 1330 824 615 106 2322 276 1168 635 45 128 584 259 1444 201 18 129 654 93 1192 52 548 273 5809 348 1798 1726 2261
internal_value=0.000146952 0.026139 -0.0214811 0.0481596 0.0152702 -0.0303751 -0.0123676 0.00620451 -0.0245643 0.0230343 -0.0165992 0.00881405 -0.0199776 -0.0399948 -0.0282838 0.0277547 0.0383899 -0.0448207 -0.00178376 -0.0336432 0.0125052 -0.0312252 -0.0317839 -0.0180589 -0.0135068 -0.0481988 -0.0384746 -0.00731528 0.00689811 -0.0504736 -0.032944 -0.0339263 0.0409605 -0.00991164 -0.000616553 0.0063778 -0.0121244 0.0648272 -0.0121333 -0.01743 -0.0145603 -0.0223074 -0.0168204 0.00831446 -0.00369594 0.0292133 0.020925 -0.0195632 0.010432 -0.0445678 -0.0120467 0.0240743 0.0422321 0.0441112 -0.0131139 0.0151467 0.00850026 -0.00404227 -0.00256548 0.00232746 -0.0325272 -0.00529899 0.0405556 -0.00286194 -0.0360965 -0.0267456 -0.0182094 -0.00299895 -0.0415164 0.00847776 -0.00510065 -0.0347264 0.00410075 -0.0406062 -0.00999566 -0.0209279 -0.0113308 -0.0256836 -0.0335445 0.00964116 0.00632708 0.00851902 0.0436633 -0.0205724 -0.00631492 -0.0365037 0.0342976 -0.0123025 -0.0454604 -0.0347772 0.0312044 -0.0160879 -0.00949161 -0.0215639 -0.0193515 -0.0091958 -0.030053 -0.0161699 -0.0413461 -0.0511397 -0.0350942 -0.0209667 -0.0384524 0.0152907 0.0046476 -0.0329771 -0.0420732 -0.0521409 -0.0555801 -0.0156154 -0.0191108 -0.0321496 -0.0273945 -0.0362865 -0.0160123 -0.00469031 0.00593262 0.00289913 -0.00338088 0.0660566 0.0673523 -0.0418543 0.0185624 -0.00532415 -0.00827705 -0.00446513
internal_weight=19781 8984.23 10796.8 2968.71 6015.52 5463.82 5332.99 2775.52 3406.82 3240 3809.39 2521.3 2792.53 2057 2548.85 2026.39 1872.05 1294.88 1523.6 438.295 1947.17 1978.88 762.121 569.969 857.969 32.4053 372.26 1016.86 156.737 785.112 1775.7 1695.7 1586.61 860.124 1471.04 483.111 86.5748 1096.66 825.563 2354.24 1483.06 871.172 1349.94 133.128 574.132 1908.47 370.388 212.772 396.537 455.649 80.0046 285.44 1480.93 1257.64 688.428 1213.61 412.584 987.925 561.495 373.415 37.493 18.5366 824.255 941.038 509.768 187.607 122.989 71.8551 322.161 167.472 73.707 21.8486 117.917 621.535 24.5426 511.494 169.941 341.553 187.991 1510.86 877.257 778.127 634.992 913.051 66.0353 549.348 188.347 188.081 450.204 513.032 1538.09 593.051 269.545 323.506 132.064 80.9027 1074.16 203.179 345.212 133.915 211.297 907.54 62.3133 276.33 81.2215 477.78 161.958 104.066 98.7039 188.323 44.7079 195.916 32.5281 7.17206 153.563 76.4197 42.5115 171.696 126.199 1046.74 960.539 596.993 801.021 773.566 567.29 406.569
internal_count=189046 71029 118017 18966 52063 62627 55390 25724 37850 26339 40520 22953 30154 24777 28864 15816 13249 15925 14870 5100 17320 22783 8852 6081 8986 408 4426 10366 1484 9897 20610 19796 10943 8882 14258 4425 860 5717 8578 25054 15520 9534 14343 1177 5633 14719 3058 2367 3565 5592 814 2306 10078 8395 7278 10523 3786 9833 5460 3503 438 182 5705 9301 6028 2133 1319 681 3895 1540 753 280 1097 6870 225 5576 1760 3816 2205 13719 8156 7123 4249 9895 674 6485 1391 1957 5554 6008 11661 6289 2742 3547 1435 824 12926 2173 4192 1704 2488 9860 721 2409 725 5537 1976 1341 1296 2017 494 2268 374 87 1611 783 376 1604 1244 5366 4818 6645 6737 7761 5785 4059
is_linear=0
shrinkage=0.05


end of trees

feature_importances:
age=21
jockey_win_rate_course=21
jockey_top3_rate_30d=20
distance=14
jockey_recent_rides=12
weight_carried=11
jockey_win_rate_30d=9
horse_num=6
race_grade=4
field_size=4
track_condition_enc=2
gate=2

parameters:
[boosting: gbdt]
[objective: lambdarank]
[metric: ndcg]
[tree_learner: serial]
[device_type: cpu]
[data_sample_strategy: bagging]
[data: ]
[valid: ]
[num_iterations: 2000]
[learning_rate: 0.05]
[num_leaves: 127]
[num_threads: 0]
[seed: 0]
[deterministic: 0]
[force_col_wise: 0]
[force_row_wise: 0]
[histogram_pool_size: -1]
[max_depth: -1]
[min_data_in_leaf: 30]
[min_sum_hessian_in_leaf: 0.001]
[bagging_fraction: 0.8]
[pos_bagging_fraction: 1]
[neg_bagging_fraction: 1]
[bagging_freq: 5]
[bagging_seed: 3]
[bagging_by_query: 0]
[feature_fraction: 0.8]
[feature_fraction_bynode: 1]
[feature_fraction_seed: 2]
[extra_trees: 0]
[extra_seed: 6]
[early_stopping_round: 0]
[early_stopping_min_delta: 0]
[first_metric_only: 0]
[max_delta_step: 0]
[lambda_l1: 0.1]
[lambda_l2: 0.1]
[linear_lambda: 0]
[min_gain_to_split: 0]
[drop_rate: 0.1]
[max_drop: 50]
[skip_drop: 0.5]
[xgboost_dart_mode: 0]
[uniform_drop: 0]
[drop_seed: 4]
[top_rate: 0.2]
[other_rate: 0.1]
[min_data_per_group: 100]
[max_cat_threshold: 32]
[cat_l2: 10]
[cat_smooth: 10]
[max_cat_to_onehot: 4]
[top_k: 20]
[monotone_constraints: ]
[monotone_constraints_method: basic]
[monotone_penalty: 0]
[feature_contri: ]
[forcedsplits_filename: ]
[refit_decay_rate: 0.9]
[cegb_tradeoff: 1]
[cegb_penalty_split: 0]
[cegb_penalty_feature_lazy: ]
[cegb_penalty_feature_coupled: ]
[path_smooth: 0]
[interaction_constraints: ]
[verbosity: -1]
[saved_feature_importance_type: 0]
[use_quantized_grad: 0]
[num_grad_quant_bins: 4]
[quant_train_renew_leaf: 0]
[stochastic_rounding: 1]
[linear_tree: 0]
[max_bin: 255]
[max_bin_by_feature: ]
[min_data_in_bin: 3]
[bin_construct_sample_cnt: 200000]
[data_random_seed: 1]
[is_enable_sparse: 1]
[enable_bundle: 1]
[use_missing: 1]
[zero_as_missing: 0]
[feature_pre_filter: 1]
[pre_partition: 0]
[two_round: 0]
[header: 0]
[label_column: ]
[weight_column: ]
[group_column: ]
[ignore_column: ]
[categorical_feature: ]
[forcedbins_filename: ]
[precise_float_parser: 0]
[parser_config_file: ]
[objective_seed: 5]
[num_class: 1]
[is_unbalance: 0]
[scale_pos_weight: 1]
[sigmoid: 1]
[boost_from_average: 1]
[reg_sqrt: 0]
[alpha: 0.9]
[fair_c: 1]
[poisson_max_delta_step: 0.7]
[tweedie_variance_power: 1.5]
[lambdarank_truncation_level: 30]
[lambdarank_norm: 1]
[label_gain: ]
[lambdarank_position_bias_regularization: 0]
[eval_at: 1,3]
[multi_error_top_k: 1]
[auc_mu_weights: ]
[num_machines: 1]
[local_listen_port: 12400]
[time_out: 120]
[machine_list_filename: ]
[machines: ]
[gpu_platform_id: -1]
[gpu_device_id: -1]
[gpu_use_dp: 0]
[num_gpu: 1]

end of parameters

pandas_categorical:[]
